FANN_FLO_2.1
num_layers=3
learning_rate=0.700000
connection_rate=1.000000
network_type=0
learning_momentum=0.000000
training_algorithm=2
train_error_function=1
train_stop_function=0
cascade_output_change_fraction=0.010000
quickprop_decay=-0.000100
quickprop_mu=1.750000
rprop_increase_factor=1.200000
rprop_decrease_factor=0.500000
rprop_delta_min=0.000000
rprop_delta_max=50.000000
rprop_delta_zero=0.100000
cascade_output_stagnation_epochs=12
cascade_candidate_change_fraction=0.010000
cascade_candidate_stagnation_epochs=12
cascade_max_out_epochs=150
cascade_min_out_epochs=50
cascade_max_cand_epochs=150
cascade_min_cand_epochs=50
cascade_num_candidate_groups=2
bit_fail_limit=3.49999994039535522461e-01
cascade_candidate_limit=1.00000000000000000000e+03
cascade_weight_multiplier=4.00000005960464477539e-01
cascade_activation_functions_count=10
cascade_activation_functions=3 5 7 8 10 11 14 15 16 17 
cascade_activation_steepnesses_count=4
cascade_activation_steepnesses=2.50000000000000000000e-01 5.00000000000000000000e-01 7.50000000000000000000e-01 1.00000000000000000000e+00 
layer_sizes=3 7 4 
scale_included=0
neurons (num_inputs, activation_function, activation_steepness)=(0, 0, 0.00000000000000000000e+00) (0, 0, 0.00000000000000000000e+00) (0, 0, 0.00000000000000000000e+00) (3, 5, 5.00000000000000000000e-01) (3, 5, 5.00000000000000000000e-01) (3, 5, 5.00000000000000000000e-01) (3, 5, 5.00000000000000000000e-01) (3, 5, 5.00000000000000000000e-01) (3, 5, 5.00000000000000000000e-01) (0, 5, 0.00000000000000000000e+00) (7, 5, 5.00000000000000000000e-01) (7, 5, 5.00000000000000000000e-01) (7, 5, 5.00000000000000000000e-01) (0, 5, 0.00000000000000000000e+00) 
connections (connected_to_neuron, weight)=(0, 3.53008995056152343750e+01) (1, 5.49019042968750000000e+02) (2, -5.59189758300781250000e+01) (0, 1.50000000000000000000e+03) (1, -1.50000000000000000000e+03) (2, -1.49996765136718750000e+03) (0, -2.32179622650146484375e+01) (1, 4.30364532470703125000e+01) (2, -2.74175977706909179688e+00) (0, -3.03469038009643554688e+00) (1, 3.18176307678222656250e+01) (2, 1.42727303504943847656e+00) (0, -8.01431655883789062500e-01) (1, -3.42327058315277099609e-01) (2, 5.19055931363254785538e-04) (0, -7.37058997154235839844e-01) (1, -6.66075944900512695312e+00) (2, 1.65666627883911132812e+00) (3, 1.73248887062072753906e+00) (4, -4.00629758834838867188e+00) (5, 5.55169773101806640625e+00) (6, -2.13396477699279785156e+00) (7, 5.89969730377197265625e+00) (8, 7.87409353256225585938e+00) (9, 1.46511614322662353516e+00) (3, -2.95796680450439453125e+00) (4, 3.36791205406188964844e+00) (5, -2.67684245109558105469e+00) (6, 1.08359546661376953125e+01) (7, 4.45529556274414062500e+00) (8, -5.20148038864135742188e+00) (9, -4.58967161178588867188e+00) (3, 9.11051690578460693359e-01) (4, -9.28836822509765625000e-01) (5, -2.21517634391784667969e+00) (6, -6.13019275665283203125e+00) (7, -1.00019855499267578125e+01) (8, -1.62137603759765625000e+00) (9, 2.02372026443481445312e+00) 
