FANN_FLO_2.1
num_layers=3
learning_rate=0.700000
connection_rate=1.000000
network_type=0
learning_momentum=0.000000
training_algorithm=2
train_error_function=1
train_stop_function=0
cascade_output_change_fraction=0.010000
quickprop_decay=-0.000100
quickprop_mu=1.750000
rprop_increase_factor=1.200000
rprop_decrease_factor=0.500000
rprop_delta_min=0.000000
rprop_delta_max=50.000000
rprop_delta_zero=0.100000
cascade_output_stagnation_epochs=12
cascade_candidate_change_fraction=0.010000
cascade_candidate_stagnation_epochs=12
cascade_max_out_epochs=150
cascade_min_out_epochs=50
cascade_max_cand_epochs=150
cascade_min_cand_epochs=50
cascade_num_candidate_groups=2
bit_fail_limit=3.49999994039535522461e-01
cascade_candidate_limit=1.00000000000000000000e+03
cascade_weight_multiplier=4.00000005960464477539e-01
cascade_activation_functions_count=10
cascade_activation_functions=3 5 7 8 10 11 14 15 16 17 
cascade_activation_steepnesses_count=4
cascade_activation_steepnesses=2.50000000000000000000e-01 5.00000000000000000000e-01 7.50000000000000000000e-01 1.00000000000000000000e+00 
layer_sizes=9 11 4 
scale_included=0
neurons (num_inputs, activation_function, activation_steepness)=(0, 0, 0.00000000000000000000e+00) (0, 0, 0.00000000000000000000e+00) (0, 0, 0.00000000000000000000e+00) (0, 0, 0.00000000000000000000e+00) (0, 0, 0.00000000000000000000e+00) (0, 0, 0.00000000000000000000e+00) (0, 0, 0.00000000000000000000e+00) (0, 0, 0.00000000000000000000e+00) (0, 0, 0.00000000000000000000e+00) (9, 5, 5.00000000000000000000e-01) (9, 5, 5.00000000000000000000e-01) (9, 5, 5.00000000000000000000e-01) (9, 5, 5.00000000000000000000e-01) (9, 5, 5.00000000000000000000e-01) (9, 5, 5.00000000000000000000e-01) (9, 5, 5.00000000000000000000e-01) (9, 5, 5.00000000000000000000e-01) (9, 5, 5.00000000000000000000e-01) (9, 5, 5.00000000000000000000e-01) (0, 5, 0.00000000000000000000e+00) (11, 5, 5.00000000000000000000e-01) (11, 5, 5.00000000000000000000e-01) (11, 5, 5.00000000000000000000e-01) (0, 5, 0.00000000000000000000e+00) 
connections (connected_to_neuron, weight)=(0, -2.85367108881473541260e-02) (1, 5.69827020168304443359e-01) (2, 8.27504754066467285156e-01) (3, 5.14986813068389892578e-01) (4, 1.32473623752593994141e+00) (5, 6.10915517807006835938e+00) (6, 1.45627677440643310547e+00) (7, -1.15463323593139648438e+01) (8, -6.18288516998291015625e-01) (0, -2.80008721351623535156e+00) (1, -6.17386698722839355469e-01) (2, 3.09849452972412109375e+00) (3, -1.49937522411346435547e+00) (4, -3.16002011299133300781e-01) (5, 1.71378421783447265625e+00) (6, 3.01018738746643066406e+00) (7, 1.04795563220977783203e+00) (8, -2.86478400230407714844e-01) (0, -6.43559122085571289062e+00) (1, 1.58196449279785156250e+00) (2, -1.13381826877593994141e+00) (3, -6.63364505767822265625e+00) (4, -5.22065830230712890625e+00) (5, 3.88017425537109375000e+01) (6, 1.29562482833862304688e+01) (7, 6.50579023361206054688e+00) (8, 4.83944797515869140625e+00) (0, -3.96488046646118164062e+00) (1, 4.45908164978027343750e+00) (2, -3.06068134307861328125e+00) (3, -6.44501256942749023438e+00) (4, -8.53444635868072509766e-01) (5, 7.75549650192260742188e+00) (6, -6.32812500000000000000e+00) (7, -1.27063350677490234375e+01) (8, -3.43063890933990478516e-01) (0, -5.17174053192138671875e+00) (1, 1.04548847675323486328e+00) (2, 6.84699344635009765625e+00) (3, 1.35688180923461914062e+01) (4, 3.84017705917358398438e+00) (5, -1.18149223327636718750e+01) (6, 2.28549313545227050781e+00) (7, 2.11555600166320800781e+00) (8, -2.24944686889648437500e+00) (0, -2.72674822807312011719e+00) (1, 6.94296789169311523438e+00) (2, 1.61064167022705078125e+01) (3, -2.82323145866394042969e+00) (4, 1.69047582149505615234e+00) (5, 1.24345086514949798584e-01) (6, -1.88474774360656738281e-01) (7, 1.18939733505249023438e+00) (8, -6.73328399658203125000e-01) (0, -1.58140325546264648438e+00) (1, 1.39315581321716308594e+00) (2, -3.57552886009216308594e-01) (3, 1.48428344726562500000e+00) (4, -6.18100941181182861328e-01) (5, 8.21229457855224609375e-01) (6, 2.54608929157257080078e-01) (7, 1.12586402893066406250e+00) (8, 1.02048659324645996094e+00) (0, -1.56884387135505676270e-01) (1, 3.22113990783691406250e-01) (2, -1.43878400325775146484e+00) (3, -3.68851842358708381653e-03) (4, -7.21501886844635009766e-01) (5, -3.46927732229232788086e-01) (6, -2.53244400024414062500e-01) (7, 1.88012048602104187012e-01) (8, 8.30616533756256103516e-01) (0, -1.68256759643554687500e+00) (1, 3.69380503892898559570e-01) (2, 6.54035732150077819824e-02) (3, 9.67175185680389404297e-01) (4, -4.50178459286689758301e-02) (5, 1.12864613533020019531e+00) (6, -1.03567790985107421875e+00) (7, 1.26303064823150634766e+00) (8, 7.48161554336547851562e-01) (0, 1.65542430877685546875e+01) (1, 3.14665019512176513672e-01) (2, 6.77112531661987304688e+00) (3, -3.06928992271423339844e+00) (4, 4.89791125059127807617e-01) (5, 5.43726825714111328125e+00) (6, -2.88439106941223144531e+00) (7, 3.66244292259216308594e+00) (8, 4.72159177064895629883e-01) (9, -6.95942580699920654297e-01) (10, -3.77264761924743652344e+00) (11, 4.60065221786499023438e+00) (12, -4.58116245269775390625e+00) (13, -6.36591315269470214844e-01) (14, 4.03724336624145507812e+00) (15, -2.77654099464416503906e+00) (16, 6.44905948638916015625e+00) (17, 3.71454745531082153320e-01) (18, -3.01506400108337402344e+00) (19, 1.15587043762207031250e+00) (9, 1.37213778495788574219e+00) (10, 1.23234808444976806641e+00) (11, -4.27507543563842773438e+00) (12, -6.71542882919311523438e-02) (13, -3.06114220619201660156e+00) (14, -3.63366460800170898438e+00) (15, 3.70796203613281250000e+00) (16, 6.51972770690917968750e+00) (17, 4.24925279617309570312e+00) (18, -1.65939271450042724609e-01) (19, 1.67945480346679687500e+00) (9, 3.17421650886535644531e+00) (10, 2.79388475418090820312e+00) (11, 2.47576206922531127930e-01) (12, 3.71274805068969726562e+00) (13, 3.99088668823242187500e+00) (14, -7.19496533274650573730e-02) (15, -4.11900615692138671875e+00) (16, -1.15333404541015625000e+01) (17, -1.25577044486999511719e+00) (18, 3.62529754638671875000e+00) (19, -4.62802946567535400391e-01) 
